{
    "name": "2v2v2 or 3v3v3 or 3 FFA or 9 FFA TriplePlanet",
    "creator": "KingSlayerGM",
    "version": "1",
    "description" : "3 planet system for interplanetary was, perfect for 3 teams.",
    "players": [3, 9],
    "planets": [
        {
            "name": "Corneria",
            "mass": 10000,
            "position_x": 25000,
            "position_y": 100,
            "velocity_x": -0.5656848549842834,
            "velocity_y": 141.419677734375,
            "required_thrust_to_move": 3,
            "starting_planet": true,
            "respawn": false,
            "start_destroyed": false,
            "min_spawn_delay": 0,
            "max_spawn_delay": 0,
            "planet": {
                "seed": 800297408,
                "radius": 400,
                "heightRange": 0,
                "waterHeight": 0,
                "waterDepth": 100,
                "temperature": 100,
                "metalDensity": 50,
                "metalClusters": 50,
                "metalSpotLimit": -1,
                "biomeScale": 75.00000006869588,
                "biome": "sandstone",
                "symmetryType": "none",
                "symmetricalMetal": false,
                "symmetricalStarts": false,
                "numArmies": 2,
                "landingZonesPerArmy": 0,
                "landingZoneSize": 0
            },
            "planetCSG": [
                {
                    "proj": "BP_Bend",
                    "spec": "/pa/terrain/desert/brushes/desert_t3_small_2x_1_ramp.json",
                    "height": 401.6357421875,
                    "op": "BO_Add",
                    "position": [
                        217.8988037109375,
                        -140.91156005859375,
                        306.553955078125
                    ],
                    "transform": [
                        0.16660870611667633,
                        -0.8233495950698853,
                        0.5425283312797546,
                        217.89877319335938,
                        0.935496985912323,
                        -0.04187890142202377,
                        -0.3508441150188446,
                        -140.91152954101562,
                        0.3115878403186798,
                        0.5659872889518738,
                        0.7632635831832886,
                        306.5539245605469
                    ],
                    "scale": [
                        1,
                        1,
                        1
                    ],
                    "rotation": 1.4999991655349731,
                    "weight": [
                        0,
                        0,
                        0,
                        0
                    ],
                    "weightHard": false,
                    "weightScale": [
                        1,
                        1,
                        1
                    ],
                    "mirrored": false,
                    "twinId": 0,
                    "pathable": true,
                    "flooded": false,
                    "mergeable": false,
                    "no_features": false
                },
                {
                    "proj": "BP_Bend",
                    "spec": "/pa/terrain/desert/brushes/desert_t3_small_2x_1_ramp.json",
                    "height": 400.0287780761719,
                    "op": "BO_Add",
                    "position": [
                        187.626220703125,
                        72.70532989501953,
                        -345.7359619140625
                    ],
                    "transform": [
                        0.0512259304523468,
                        0.8816945552825928,
                        0.4690319001674652,
                        187.62625122070312,
                        0.9713501930236816,
                        -0.15311983227729797,
                        0.18175029754638672,
                        72.70535278320312,
                        0.2320663183927536,
                        0.4462839365005493,
                        -0.8642778396606445,
                        -345.73602294921875
                    ],
                    "scale": [
                        1,
                        1,
                        1
                    ],
                    "rotation": 2.4199984073638916,
                    "weight": [
                        0,
                        0,
                        0,
                        0
                    ],
                    "weightHard": false,
                    "weightScale": [
                        1,
                        1,
                        1
                    ],
                    "mirrored": false,
                    "twinId": 0,
                    "pathable": true,
                    "flooded": false,
                    "mergeable": false,
                    "no_features": false
                },
                {
                    "proj": "BP_Bend",
                    "spec": "/pa/terrain/desert/brushes/desert_t3_small_2x_1_ramp.json",
                    "height": 401.5069274902344,
                    "op": "BO_Add",
                    "position": [
                        -400.004638671875,
                        19.44610595703125,
                        28.7392578125
                    ],
                    "transform": [
                        0.07359044253826141,
                        -0.0453173853456974,
                        -0.9962583780288696,
                        -400.004638671875,
                        0.9096810817718506,
                        0.4124738276004791,
                        0.04843280836939812,
                        19.446107864379883,
                        0.4087356925010681,
                        -0.9098415374755859,
                        0.0715785026550293,
                        28.73926544189453
                    ],
                    "scale": [
                        1,
                        1,
                        1
                    ],
                    "rotation": 1.0999995470046997,
                    "weight": [
                        0,
                        0,
                        0,
                        0
                    ],
                    "weightHard": false,
                    "weightScale": [
                        1,
                        1,
                        1
                    ],
                    "mirrored": false,
                    "twinId": 0,
                    "pathable": true,
                    "flooded": false,
                    "mergeable": false,
                    "no_features": false
                },
                {
                    "proj": "BP_Bend",
                    "spec": "/pa/terrain/desert/brushes/desert_t2_small_2_ramp.json",
                    "height": 398.53515625,
                    "op": "BO_Add",
                    "position": [
                        -54.51606750488281,
                        -371.30810546875,
                        -134.1214599609375
                    ],
                    "transform": [
                        0.9717968106269836,
                        -0.19209156930446625,
                        -0.13679111003875732,
                        -54.51606750488281,
                        -0.19209156930446625,
                        -0.30833280086517334,
                        -0.9316821098327637,
                        -371.3080749511719,
                        0.13679111003875732,
                        0.9316821098327637,
                        -0.3365360498428345,
                        -134.12144470214844
                    ],
                    "scale": [
                        1,
                        1,
                        1
                    ],
                    "rotation": 0,
                    "weight": [
                        0,
                        0,
                        0,
                        0
                    ],
                    "weightHard": false,
                    "weightScale": [
                        1,
                        1,
                        1
                    ],
                    "mirrored": false,
                    "twinId": 0,
                    "pathable": true,
                    "flooded": false,
                    "mergeable": false,
                    "no_features": false
                },
                {
                    "proj": "BP_Bend",
                    "spec": "/pa/terrain/desert/brushes/desert_t3_medium_4_ramp.json",
                    "height": 402.3466796875,
                    "op": "BO_Add",
                    "position": [
                        66.07470703125,
                        379.71044921875,
                        115.48574829101562
                    ],
                    "transform": [
                        1.233596920967102,
                        -0.15172897279262543,
                        0.20692133903503418,
                        66.07470703125,
                        -0.15172897279262543,
                        0.3880612552165985,
                        1.1891114711761475,
                        379.7104187011719,
                        -0.20692133903503418,
                        -1.1891114711761475,
                        0.36165839433670044,
                        115.48577880859375
                    ],
                    "scale": [
                        1.2599997520446777,
                        1.2599997520446777,
                        1.2599997520446777
                    ],
                    "rotation": 0,
                    "weight": [
                        0,
                        0,
                        0,
                        0
                    ],
                    "weightHard": false,
                    "weightScale": [
                        1,
                        1,
                        1
                    ],
                    "mirrored": false,
                    "twinId": 0,
                    "pathable": true,
                    "flooded": false,
                    "mergeable": false,
                    "no_features": false
                },
                {
                    "proj": "BP_Bend",
                    "spec": "/pa/terrain/desert/brushes/desert_plateau_08.json",
                    "height": 399.5657958984375,
                    "op": "BO_Add",
                    "position": [
                        -15.436904907226562,
                        -128.46771240234375,
                        378.03515625
                    ],
                    "transform": [
                        4.557459354400635,
                        4.822166442871094,
                        -0.2565309405326843,
                        -15.436907768249512,
                        -4.625838756561279,
                        4.258336544036865,
                        -2.1348798274993896,
                        -128.46771240234375,
                        -1.3858972787857056,
                        1.6440221071243286,
                        6.282197952270508,
                        378.03515625
                    ],
                    "scale": [
                        6.6399946212768555,
                        6.6399946212768555,
                        6.6399946212768555
                    ],
                    "rotation": -0.8199997544288635,
                    "weight": [
                        0,
                        0,
                        0,
                        0
                    ],
                    "weightHard": false,
                    "weightScale": [
                        1,
                        1,
                        1
                    ],
                    "mirrored": false,
                    "twinId": 0,
                    "pathable": false,
                    "flooded": false,
                    "mergeable": false,
                    "no_features": false
                },
                {
                    "proj": "BP_Bend",
                    "spec": "/pa/terrain/desert/brushes/desert_plateau_08.json",
                    "height": 399.9881591796875,
                    "op": "BO_Add",
                    "position": [
                        352.30078125,
                        8.00341796875,
                        -189.2369384765625
                    ],
                    "transform": [
                        -3.0459446907043457,
                        -0.7800116539001465,
                        5.848361968994141,
                        352.3008117675781,
                        -1.4063591957092285,
                        6.4879913330078125,
                        0.13286058604717255,
                        8.003418922424316,
                        -5.730088233947754,
                        -1.177743673324585,
                        -3.1414239406585693,
                        -189.23695373535156
                    ],
                    "scale": [
                        6.6399946212768555,
                        6.6399946212768555,
                        6.6399946212768555
                    ],
                    "rotation": -0.17999997735023499,
                    "weight": [
                        0,
                        0,
                        0,
                        0
                    ],
                    "weightHard": false,
                    "weightScale": [
                        1,
                        1,
                        1
                    ],
                    "mirrored": false,
                    "twinId": 0,
                    "pathable": false,
                    "flooded": false,
                    "mergeable": false,
                    "no_features": false
                },
                {
                    "proj": "BP_Bend",
                    "spec": "/pa/terrain/desert/brushes/desert_plateau_08.json",
                    "height": 400.5927734375,
                    "op": "BO_Add",
                    "position": [
                        -339.5283203125,
                        90.84489440917969,
                        -192.20376586914062
                    ],
                    "transform": [
                        -2.805532217025757,
                        -2.1321558952331543,
                        -5.627824306488037,
                        -339.52825927734375,
                        -5.547094345092773,
                        3.324434280395508,
                        1.505792260169983,
                        90.84487915039062,
                        2.334150791168213,
                        5.337748050689697,
                        -3.1858582496643066,
                        -192.2037353515625
                    ],
                    "scale": [
                        6.6399946212768555,
                        6.6399946212768555,
                        6.6399946212768555
                    ],
                    "rotation": -1.4199992418289185,
                    "weight": [
                        0,
                        0,
                        0,
                        0
                    ],
                    "weightHard": false,
                    "weightScale": [
                        1,
                        1,
                        1
                    ],
                    "mirrored": false,
                    "twinId": 0,
                    "pathable": false,
                    "flooded": false,
                    "mergeable": false,
                    "no_features": false
                }
            ],
            "metal_spots": [
                [
                    -30.38433837890625,
                    413.09564208984375,
                    146.98837280273438
                ],
                [
                    -25.270835876464844,
                    389.5269775390625,
                    202.1812744140625
                ],
                [
                    127.39761352539062,
                    367.519287109375,
                    205.27774047851562
                ],
                [
                    175.78836059570312,
                    368.34295654296875,
                    166.59494018554688
                ],
                [
                    163.55706787109375,
                    407.23748779296875,
                    35.61322021484375
                ],
                [
                    130.63954162597656,
                    419.9052734375,
                    14.53143310546875
                ],
                [
                    11.81473159790039,
                    438.33184814453125,
                    9.4755859375
                ],
                [
                    -34.73774719238281,
                    436.56390380859375,
                    27.7562255859375
                ],
                [
                    54.86492156982422,
                    427.64105224609375,
                    87.00323486328125
                ],
                [
                    103.01934051513672,
                    419.3243408203125,
                    86.6239013671875
                ],
                [
                    103.29663848876953,
                    405.693359375,
                    136.90057373046875
                ],
                [
                    56.85127258300781,
                    414.2762451171875,
                    137.119140625
                ],
                [
                    198.22134399414062,
                    1.0555267333984375,
                    -381.3031005859375
                ],
                [
                    240.85394287109375,
                    -9.371780395507812,
                    -355.6802978515625
                ],
                [
                    259.7786865234375,
                    140.4903564453125,
                    -313.4488525390625
                ],
                [
                    232.55999755859375,
                    154.14654541015625,
                    -328.18798828125
                ],
                [
                    -428.8514404296875,
                    -38.33331298828125,
                    -9.052474975585938
                ],
                [
                    -426.2327880859375,
                    -28.66851806640625,
                    -53.4322509765625
                ],
                [
                    -415.7890625,
                    114.86212158203125,
                    -6.2976837158203125
                ],
                [
                    -417.9405517578125,
                    95.6527099609375,
                    49.653778076171875
                ],
                [
                    223.4224853515625,
                    -73.936767578125,
                    362.87493896484375
                ],
                [
                    182.57025146484375,
                    -85.96146392822266,
                    381.4359130859375
                ],
                [
                    164.549072265625,
                    -227.8960418701172,
                    325.666748046875
                ],
                [
                    210.89874267578125,
                    -215.90621948242188,
                    307.52044677734375
                ],
                [
                    -16.771503448486328,
                    -386.28680419921875,
                    -160.235107421875
                ],
                [
                    -19.849843978881836,
                    -399.7640380859375,
                    -122.47303771972656
                ],
                [
                    -104.13375854492188,
                    -387.54315185546875,
                    -118.30830383300781
                ],
                [
                    -101.50029754638672,
                    -375.05157470703125,
                    -154.89659118652344
                ],
                [
                    -286.3731994628906,
                    -256.6954345703125,
                    -110.8057861328125
                ],
                [
                    -291.0279541015625,
                    -267.357666015625,
                    -64.955078125
                ],
                [
                    -264.25494384765625,
                    -284.9609375,
                    -94.4224853515625
                ],
                [
                    69.39068603515625,
                    -204.76934814453125,
                    -336.1356201171875
                ],
                [
                    101.545166015625,
                    -220.35406494140625,
                    -316.9754638671875
                ],
                [
                    57.62139892578125,
                    -244.99359130859375,
                    -309.367431640625
                ],
                [
                    131.99594116210938,
                    -350.1719970703125,
                    140.22006225585938
                ],
                [
                    96.17532348632812,
                    -351.4881591796875,
                    163.68463134765625
                ],
                [
                    92.36953735351562,
                    -369.896240234375,
                    118.6865234375
                ],
                [
                    -173.30078125,
                    -347.2156982421875,
                    96.87431335449219
                ],
                [
                    -148.86639404296875,
                    -241.1697998046875,
                    -278.114990234375
                ],
                [
                    198.89169311523438,
                    -334.0135498046875,
                    -91.30615234375
                ],
                [
                    -222.0533447265625,
                    -74.01666259765625,
                    327.78912353515625
                ],
                [
                    -222.6923828125,
                    -122.86773681640625,
                    311.263671875
                ],
                [
                    400.93017578125,
                    -8.286293029785156,
                    27.06231689453125
                ],
                [
                    397.9173583984375,
                    -57.592918395996094,
                    12.093612670898438
                ],
                [
                    -180.7431640625,
                    156.239990234375,
                    -320.5135498046875
                ],
                [
                    -185.1815185546875,
                    107.0767822265625,
                    -337.66943359375
                ],
                [
                    -245.93609619140625,
                    179.58575439453125,
                    263.8961486816406
                ],
                [
                    292.6490173339844,
                    168.87774658203125,
                    222.793701171875
                ],
                [
                    -24.80804443359375,
                    318.15087890625,
                    -239.24658203125
                ],
                [
                    256.300048828125,
                    284.4659423828125,
                    -124.59286499023438
                ],
                [
                    -254.42474365234375,
                    312.033203125,
                    -8.5595703125
                ],
                [
                    11.056640625,
                    181.319580078125,
                    358.34326171875
                ],
                [
                    112.7376708984375,
                    -13.16656494140625,
                    -383.8128662109375
                ],
                [
                    118.9959716796875,
                    179.4570770263672,
                    -338.0316162109375
                ],
                [
                    -369.015869140625,
                    87.20672607421875,
                    132.44656372070312
                ],
                [
                    -381.095458984375,
                    -110.41546630859375,
                    55.6795654296875
                ],
                [
                    291.1015625,
                    -36.0308837890625,
                    277.2723388671875
                ],
                [
                    257.152099609375,
                    -218.9348602294922,
                    217.06103515625
                ]
            ],
            "landing_zones": {
                "list": [
                    [
                        -429.751220703125,
                        33.896728515625,
                        -1.0678024291992188
                    ],
                    [
                        226.85072326660156,
                        80.80908203125,
                        -356.2967529296875
                    ],
                    [
                        211.06085205078125,
                        -139.08328247070312,
                        349.23284912109375
                    ]
                ],
                "rules": [
                    {
                        "min": 3,
                        "max": 10
                    },
                    {
                        "min": 6,
                        "max": 10
                    },
                    {
                        "min": 9,
                        "max": 10
                    }
                ]
            }
        },
        {
            "name": "Navajo",
            "mass": 10000,
            "position_x": 50300,
            "position_y": 0,
            "velocity_x": -0.000004358083970146254,
            "velocity_y": 99.70133972167969,
            "required_thrust_to_move": 3,
            "starting_planet": true,
            "respawn": false,
            "start_destroyed": false,
            "min_spawn_delay": 0,
            "max_spawn_delay": 0,
            "planet": {
                "seed": 1065652544,
                "radius": 400,
                "heightRange": 0,
                "waterHeight": 0,
                "waterDepth": 100,
                "temperature": 100,
                "metalDensity": 50,
                "metalClusters": 50,
                "metalSpotLimit": -1,
                "biomeScale": 75.00000006869588,
                "biome": "arctic",
                "symmetryType": "none",
                "symmetricalMetal": false,
                "symmetricalStarts": false,
                "numArmies": 2,
                "landingZonesPerArmy": 0,
                "landingZoneSize": 0
            },
            "planetCSG": [
                {
                    "proj": "BP_Bend",
                    "spec": "/pa/terrain/ice/brushes/ice_metal_t2_medium_4_ramp.json",
                    "height": 401.26177978515625,
                    "op": "BO_Add",
                    "position": [
                        -17.61370849609375,
                        -273.72393798828125,
                        292.8753662109375
                    ],
                    "transform": [
                        0.9988861680030823,
                        -0.01730973646044731,
                        -0.04389579966664314,
                        -17.613706588745117,
                        -0.01730973646044731,
                        0.7309998869895935,
                        -0.6821579933166504,
                        -273.72393798828125,
                        0.04389579966664314,
                        0.6821579933166504,
                        0.7298860549926758,
                        292.8753662109375
                    ],
                    "scale": [
                        1,
                        1,
                        1
                    ],
                    "rotation": 0,
                    "weight": [
                        0,
                        0,
                        0,
                        0
                    ],
                    "weightHard": false,
                    "weightScale": [
                        1,
                        1,
                        1
                    ],
                    "mirrored": false,
                    "twinId": 0,
                    "pathable": true,
                    "flooded": false,
                    "mergeable": false,
                    "no_features": true
                },
                {
                    "proj": "BP_Bend",
                    "spec": "/pa/terrain/ice/brushes/ice_metal_t2_medium_4_ramp.json",
                    "height": 399.279541015625,
                    "op": "BO_Add",
                    "position": [
                        359.4744873046875,
                        126.0352783203125,
                        -119.65509033203125
                    ],
                    "transform": [
                        -0.021761015057563782,
                        -0.4347093403339386,
                        0.900307834148407,
                        359.4744873046875,
                        -0.6550073623657227,
                        0.6865320205688477,
                        0.31565672159194946,
                        126.03527069091797,
                        -0.7553091049194336,
                        -0.5828392505645752,
                        -0.2996774911880493,
                        -119.65509033203125
                    ],
                    "scale": [
                        1,
                        1,
                        1
                    ],
                    "rotation": -0.31999996304512024,
                    "weight": [
                        0,
                        0,
                        0,
                        0
                    ],
                    "weightHard": false,
                    "weightScale": [
                        1,
                        1,
                        1
                    ],
                    "mirrored": false,
                    "twinId": 0,
                    "pathable": true,
                    "flooded": false,
                    "mergeable": false,
                    "no_features": true
                },
                {
                    "proj": "BP_Bend",
                    "spec": "/pa/terrain/ice/brushes/ice_metal_t2_medium_4_ramp.json",
                    "height": 403.21844482421875,
                    "op": "BO_Add",
                    "position": [
                        -349.040283203125,
                        150.056640625,
                        -135.05181884765625
                    ],
                    "transform": [
                        0.002088509500026703,
                        0.5006700754165649,
                        -0.865635871887207,
                        -349.04034423828125,
                        0.6716454029083252,
                        0.6406238675117493,
                        0.3721472918987274,
                        150.05665588378906,
                        0.7408700585365295,
                        -0.5821775794029236,
                        -0.33493471145629883,
                        -135.05184936523438
                    ],
                    "scale": [
                        1,
                        1,
                        1
                    ],
                    "rotation": 0.25999996066093445,
                    "weight": [
                        0,
                        0,
                        0,
                        0
                    ],
                    "weightHard": false,
                    "weightScale": [
                        1,
                        1,
                        1
                    ],
                    "mirrored": false,
                    "twinId": 0,
                    "pathable": true,
                    "flooded": false,
                    "mergeable": false,
                    "no_features": true
                },
                {
                    "proj": "BP_Bend",
                    "spec": "/pa/terrain/ice/brushes/ice_metal_t1_large_8_ramp.json",
                    "height": 399.486083984375,
                    "op": "BO_Add",
                    "position": [
                        -11.678237915039062,
                        268.0875244140625,
                        295.9422607421875
                    ],
                    "transform": [
                        0.9995090961456299,
                        0.01126937661319971,
                        -0.04852701723575592,
                        -11.678237915039062,
                        0.01126937661319971,
                        0.7412983775138855,
                        1.1139940023422241,
                        268.0875244140625,
                        0.02923315390944481,
                        -0.671081006526947,
                        1.2297399044036865,
                        295.9422912597656
                    ],
                    "scale": [
                        1,
                        1,
                        1.6599993705749512
                    ],
                    "rotation": 0,
                    "weight": [
                        0,
                        0,
                        0,
                        0
                    ],
                    "weightHard": false,
                    "weightScale": [
                        1,
                        1,
                        1
                    ],
                    "mirrored": false,
                    "twinId": 0,
                    "pathable": true,
                    "flooded": false,
                    "mergeable": false,
                    "no_features": true
                },
                {
                    "proj": "BP_Bend",
                    "spec": "/pa/terrain/ice/brushes/ice_metal_t2_medium_4_ramp.json",
                    "height": 399.3812255859375,
                    "op": "BO_Add",
                    "position": [
                        -11.718536376953125,
                        270.6307373046875,
                        293.47412109375
                    ],
                    "transform": [
                        0.9995037317276001,
                        0.011460940353572369,
                        -0.046946749091148376,
                        -11.718535423278809,
                        0.011460940353572369,
                        0.7353183031082153,
                        1.0841996669769287,
                        270.6307067871094,
                        0.02934172935783863,
                        -0.6776250004768372,
                        1.1757148504257202,
                        293.47412109375
                    ],
                    "scale": [
                        1,
                        1,
                        1.5999994277954102
                    ],
                    "rotation": 0,
                    "weight": [
                        0,
                        0,
                        0,
                        0
                    ],
                    "weightHard": false,
                    "weightScale": [
                        1,
                        1,
                        1
                    ],
                    "mirrored": false,
                    "twinId": 0,
                    "pathable": true,
                    "flooded": false,
                    "mergeable": false,
                    "no_features": true
                },
                {
                    "proj": "BP_Bend",
                    "spec": "/pa/terrain/ice/brushes/ice_metal_t1_large_4_ramp.json",
                    "height": 395.69903564453125,
                    "op": "BO_Add",
                    "position": [
                        12.692062377929688,
                        -272.5743408203125,
                        -286.56561279296875
                    ],
                    "transform": [
                        0.996269702911377,
                        0.08011143654584885,
                        0.032075054943561554,
                        12.692068099975586,
                        0.08011143654584885,
                        -0.7204707860946655,
                        -0.6888428926467896,
                        -272.574462890625,
                        -0.032075054943561554,
                        0.6888428926467896,
                        -0.7242010831832886,
                        -286.565673828125
                    ],
                    "scale": [
                        1,
                        1,
                        1
                    ],
                    "rotation": 0,
                    "weight": [
                        0,
                        0,
                        0,
                        0
                    ],
                    "weightHard": false,
                    "weightScale": [
                        1,
                        1,
                        1
                    ],
                    "mirrored": false,
                    "twinId": 0,
                    "pathable": true,
                    "flooded": false,
                    "mergeable": false,
                    "no_features": true
                },
                {
                    "proj": "BP_Bend",
                    "spec": "/pa/terrain/ice/brushes/ice_metal_t2_medium_2_ramp.json",
                    "height": 395.8233642578125,
                    "op": "BO_Add",
                    "position": [
                        1.606689453125,
                        -276.3463134765625,
                        -283.38360595703125
                    ],
                    "transform": [
                        0.9975444674491882,
                        0.06991875171661377,
                        0.0040591079741716385,
                        1.6066898107528687,
                        0.052885062992572784,
                        -0.713990330696106,
                        -0.6981557607650757,
                        -276.34637451171875,
                        -0.04591602087020874,
                        0.6966560482978821,
                        -0.7159347534179688,
                        -283.3836975097656
                    ],
                    "scale": [
                        1,
                        1,
                        1
                    ],
                    "rotation": -0.05999999865889549,
                    "weight": [
                        0,
                        0,
                        0,
                        0
                    ],
                    "weightHard": false,
                    "weightScale": [
                        1,
                        1,
                        1
                    ],
                    "mirrored": false,
                    "twinId": 0,
                    "pathable": true,
                    "flooded": false,
                    "mergeable": false,
                    "no_features": true
                },
                {
                    "proj": "BP_Bend",
                    "spec": "/pa/terrain/ice/brushes/ice_metal_t3_small_2x_1_ramp.json",
                    "height": 396.6436462402344,
                    "op": "BO_Add",
                    "position": [
                        -0.7513751983642578,
                        -162.01434326171875,
                        -362.0455322265625
                    ],
                    "transform": [
                        -0.9187199473381042,
                        -0.048483580350875854,
                        -0.0028793863020837307,
                        -0.7513754367828369,
                        -0.04354376718401909,
                        0.8386229872703552,
                        -0.6208640933036804,
                        -162.01438903808594,
                        0.021392397582530975,
                        -0.3751809597015381,
                        -1.3874139785766602,
                        -362.04547119140625
                    ],
                    "scale": [
                        0.9200000762939453,
                        0.9200000762939453,
                        1.5199995040893555
                    ],
                    "rotation": 3.0799977779388428,
                    "weight": [
                        0,
                        0,
                        0,
                        0
                    ],
                    "weightHard": false,
                    "weightScale": [
                        1,
                        1,
                        1
                    ],
                    "mirrored": false,
                    "twinId": 0,
                    "pathable": true,
                    "flooded": false,
                    "mergeable": false,
                    "no_features": true
                },
                {
                    "proj": "BP_Bend",
                    "spec": "/pa/terrain/ice/brushes/ice_metal_t3_small_2x_1_ramp.json",
                    "height": 396.5995178222656,
                    "op": "BO_Add",
                    "position": [
                        11.306442260742188,
                        -360.2542724609375,
                        -165.4696044921875
                    ],
                    "transform": [
                        0.918717086315155,
                        0.04088035970926285,
                        0.04333285614848137,
                        11.30644416809082,
                        0.04088035970926285,
                        -0.38256025314331055,
                        -1.3807036876678467,
                        -360.25433349609375,
                        -0.026227792724967003,
                        0.8356894254684448,
                        -0.6341756582260132,
                        -165.46963500976562
                    ],
                    "scale": [
                        0.9200000762939453,
                        0.9200000762939453,
                        1.5199995040893555
                    ],
                    "rotation": 0,
                    "weight": [
                        0,
                        0,
                        0,
                        0
                    ],
                    "weightHard": false,
                    "weightScale": [
                        1,
                        1,
                        1
                    ],
                    "mirrored": false,
                    "twinId": 0,
                    "pathable": true,
                    "flooded": false,
                    "mergeable": false,
                    "no_features": true
                },
                {
                    "proj": "BP_Bend",
                    "spec": "/pa/terrain/ice/brushes/ice_crack_01.json",
                    "height": 401.10321044921875,
                    "op": "BO_Subtract",
                    "position": [
                        49.037113189697266,
                        300.5272216796875,
                        -261.07952880859375
                    ],
                    "transform": [
                        0.9921218752861023,
                        -0.02734622359275818,
                        0.12225561589002609,
                        49.0371208190918,
                        -0.11032731831073761,
                        -0.6530314087867737,
                        0.7492517232894897,
                        300.52728271484375,
                        0.05934755504131317,
                        -0.7568371295928955,
                        -0.6509037017822266,
                        -261.0795593261719
                    ],
                    "scale": [
                        1,
                        1,
                        1
                    ],
                    "rotation": -0.23999996483325958,
                    "weight": [
                        0,
                        0,
                        0,
                        0
                    ],
                    "weightHard": false,
                    "weightScale": [
                        1,
                        1,
                        1
                    ],
                    "mirrored": false,
                    "twinId": 0,
                    "pathable": false,
                    "flooded": false,
                    "mergeable": false,
                    "no_features": true
                },
                {
                    "proj": "BP_Bend",
                    "spec": "/pa/terrain/ice/brushes/ice_crack_01.json",
                    "height": 400.5867004394531,
                    "op": "BO_Subtract",
                    "position": [
                        319.40576171875,
                        -157.1885986328125,
                        183.6883544921875
                    ],
                    "transform": [
                        0.5973313450813293,
                        0.08623424917459488,
                        0.7973449230194092,
                        319.40576171875,
                        0.40453267097473145,
                        0.8260622024536133,
                        -0.3923959732055664,
                        -157.18861389160156,
                        -0.6924943923950195,
                        0.5569424629211426,
                        0.45854830741882324,
                        183.6883544921875
                    ],
                    "scale": [
                        1,
                        1,
                        1
                    ],
                    "rotation": 0.21999996900558472,
                    "weight": [
                        0,
                        0,
                        0,
                        0
                    ],
                    "weightHard": false,
                    "weightScale": [
                        1,
                        1,
                        1
                    ],
                    "mirrored": false,
                    "twinId": 0,
                    "pathable": false,
                    "flooded": false,
                    "mergeable": false,
                    "no_features": true
                },
                {
                    "proj": "BP_Bend",
                    "spec": "/pa/terrain/ice/brushes/ice_crack_01.json",
                    "height": 403.2886047363281,
                    "op": "BO_Subtract",
                    "position": [
                        -353.3653564453125,
                        -129.56964111328125,
                        144.86654663085938
                    ],
                    "transform": [
                        0.47544607520103455,
                        -0.0787893682718277,
                        -0.8762094378471375,
                        -353.36529541015625,
                        -0.45441561937332153,
                        0.8308332562446594,
                        -0.32128262519836426,
                        -129.5696258544922,
                        0.7532975673675537,
                        0.5509158372879028,
                        0.35921329259872437,
                        144.8666229248047
                    ],
                    "scale": [
                        1,
                        1,
                        1
                    ],
                    "rotation": -0.2799999713897705,
                    "weight": [
                        0,
                        0,
                        0,
                        0
                    ],
                    "weightHard": false,
                    "weightScale": [
                        1,
                        1,
                        1
                    ],
                    "mirrored": false,
                    "twinId": 0,
                    "pathable": false,
                    "flooded": false,
                    "mergeable": false,
                    "no_features": true
                }
            ],
            "metal_spots": [
                [
                    -355.6199951171875,
                    156.20269775390625,
                    -168.11471557617188
                ],
                [
                    -376.581787109375,
                    126.63497924804688,
                    -145.96319580078125
                ],
                [
                    -377.5305480957031,
                    157.15850830078125,
                    -109.18695068359375
                ],
                [
                    -354.01434326171875,
                    186.18685913085938,
                    -137.66253662109375
                ],
                [
                    -375.26092529296875,
                    142.3563232421875,
                    33.26507568359375
                ],
                [
                    -376.81463623046875,
                    -10.462608337402344,
                    -143.21942138671875
                ],
                [
                    -253.03564453125,
                    142.5135040283203,
                    -278.1283874511719
                ],
                [
                    -260.5938720703125,
                    288.5355529785156,
                    -104.38943481445312
                ],
                [
                    386.947998046875,
                    130.989013671875,
                    -95.41192626953125
                ],
                [
                    367.40728759765625,
                    161.94248962402344,
                    -121.03994750976562
                ],
                [
                    365.2230224609375,
                    134.29830932617188,
                    -155.54722595214844
                ],
                [
                    384.30267333984375,
                    103.17936706542969,
                    -131.5089111328125
                ],
                [
                    383.5052490234375,
                    112.89654541015625,
                    40.5203857421875
                ],
                [
                    282.099365234375,
                    266.19049072265625,
                    -93.96260833740234
                ],
                [
                    274.00701904296875,
                    124.18795013427734,
                    -260.32403564453125
                ],
                [
                    376.77606201171875,
                    -44.228912353515625,
                    -122.96389770507812
                ],
                [
                    -40.8193244934082,
                    -271.03179931640625,
                    319.9520263671875
                ],
                [
                    0.3755149841308594,
                    -272.38092041015625,
                    321.4755859375
                ],
                [
                    2.887805938720703,
                    -303.16900634765625,
                    291.86334228515625
                ],
                [
                    -40.065032958984375,
                    -300.53753662109375,
                    292.20770263671875
                ],
                [
                    106.55471801757812,
                    -332.68145751953125,
                    190.9217529296875
                ],
                [
                    99.11563110351562,
                    -168.25946044921875,
                    349.21240234375
                ],
                [
                    -138.7938995361328,
                    -158.1600341796875,
                    341.4339599609375
                ],
                [
                    -136.58209228515625,
                    -327.5894775390625,
                    184.158203125
                ],
                [
                    -60.87150192260742,
                    277.39984130859375,
                    325.0460205078125
                ],
                [
                    -32.71882629394531,
                    326.59698486328125,
                    279.3336181640625
                ],
                [
                    5.443687438964844,
                    326.47607421875,
                    280.5797119140625
                ],
                [
                    -32.206661224365234,
                    254.086181640625,
                    347.257080078125
                ],
                [
                    7.3177490234375,
                    254.066162109375,
                    348.4296875
                ],
                [
                    -62.35169219970703,
                    306.05523681640625,
                    297.6429443359375
                ],
                [
                    32.90993118286133,
                    305.014892578125,
                    301.97808837890625
                ],
                [
                    32.744422912597656,
                    275.5701904296875,
                    329.7524719238281
                ],
                [
                    -69.0022964477539,
                    -200.37850952148438,
                    -388.4527587890625
                ],
                [
                    -72.41954040527344,
                    -166.10545349121094,
                    -404.0748291015625
                ],
                [
                    69.6292724609375,
                    -190.3084716796875,
                    -392.26153564453125
                ],
                [
                    68.82073974609375,
                    -157.20140075683594,
                    -406.9532470703125
                ],
                [
                    83.10582733154297,
                    -400.14874267578125,
                    -168.86563110351562
                ],
                [
                    82.02110290527344,
                    -385.3257141113281,
                    -201.13662719726562
                ],
                [
                    -55.86045837402344,
                    -407.2231140136719,
                    -163.95187377929688
                ],
                [
                    -57.24436950683594,
                    -392.0939025878906,
                    -196.91360473632812
                ],
                [
                    -1.3381118774414062,
                    -180.0889129638672,
                    -403.89312744140625
                ],
                [
                    13.197967529296875,
                    -401.9133605957031,
                    -183.91748046875
                ],
                [
                    335.1802978515625,
                    -67.62472534179688,
                    208.71957397460938
                ],
                [
                    340.1937255859375,
                    -100.32843017578125,
                    185.81539916992188
                ],
                [
                    283.482666015625,
                    -241.658447265625,
                    145.978759765625
                ],
                [
                    275.5755615234375,
                    -269.9176025390625,
                    105.3065185546875
                ],
                [
                    -339.1348876953125,
                    -55.150177001953125,
                    209.78515625
                ],
                [
                    -341.7032470703125,
                    -94.20822143554688,
                    191.07147216796875
                ],
                [
                    -353.853271484375,
                    -178.97906494140625,
                    73.89471435546875
                ],
                [
                    -340.5675048828125,
                    -210.11517333984375,
                    47.161956787109375
                ],
                [
                    23.84162139892578,
                    362.119873046875,
                    -167.70452880859375
                ],
                [
                    21.024398803710938,
                    339.785888671875,
                    -210.3597412109375
                ],
                [
                    78.51072692871094,
                    261.32666015625,
                    -292.7042236328125
                ],
                [
                    76.85991668701172,
                    229.08477783203125,
                    -318.80419921875
                ],
                [
                    -155.63363647460938,
                    347.95751953125,
                    168.375244140625
                ],
                [
                    137.09304809570312,
                    350.15594482421875,
                    173.77252197265625
                ],
                [
                    129.96218872070312,
                    131.8543701171875,
                    372.80267333984375
                ],
                [
                    -159.33482360839844,
                    137.10305786132812,
                    360.24658203125
                ]
            ],
            "landing_zones": {
                "list": [
                    [
                        -16.874847412109375,
                        -285.5,
                        309.2991943359375
                    ],
                    [
                        -367.0283203125,
                        154.66323852539062,
                        -142.963134765625
                    ],
                    [
                        377.682373046875,
                        134.5318603515625,
                        -122.5902099609375
                    ]
                ],
                "rules": [
                    {
                        "min": 3,
                        "max": 10
                    },
                    {
                        "min": 6,
                        "max": 10
                    },
                    {
                        "min": 9,
                        "max": 10
                    }
                ]
            }
        },
        {
            "name": "Fuzzy Logical",
            "mass": 10000,
            "position_x": 75100,
            "position_y": 100,
            "velocity_x": -0.10865224897861481,
            "velocity_y": 81.59516143798828,
            "required_thrust_to_move": 3,
            "starting_planet": true,
            "respawn": false,
            "start_destroyed": false,
            "min_spawn_delay": 0,
            "max_spawn_delay": 0,
            "planet": {
                "seed": 298142016,
                "radius": 400,
                "heightRange": 0,
                "waterHeight": 0,
                "waterDepth": 100,
                "temperature": 100,
                "metalDensity": 50,
                "metalClusters": 50,
                "metalSpotLimit": -1,
                "biomeScale": 75.00000006869588,
                "biome": "grass",
                "symmetryType": "none",
                "symmetricalMetal": false,
                "symmetricalStarts": false,
                "numArmies": 2,
                "landingZonesPerArmy": 0,
                "landingZoneSize": 0
            },
            "planetCSG": [
                {
                    "proj": "BP_Bend",
                    "spec": "/pa/terrain/lava/brushes/lava_t2_small_2_ramp.json",
                    "height": 397.1178283691406,
                    "op": "BO_Add",
                    "position": [
                        -374.547119140625,
                        85.1676025390625,
                        100.81414794921875
                    ],
                    "transform": [
                        -0.02525075525045395,
                        0.3313678205013275,
                        -0.9431636333465576,
                        -374.5470886230469,
                        -0.8079354166984558,
                        0.5488582849502563,
                        0.21446430683135986,
                        85.1676025390625,
                        0.5887297987937927,
                        0.7674306631088257,
                        0.25386470556259155,
                        100.81420135498047
                    ],
                    "scale": [
                        1,
                        1,
                        1
                    ],
                    "rotation": -1.139999508857727,
                    "weight": [
                        0,
                        0,
                        0,
                        0
                    ],
                    "weightHard": false,
                    "weightScale": [
                        1,
                        1,
                        1
                    ],
                    "mirrored": false,
                    "twinId": 0,
                    "pathable": true,
                    "flooded": false,
                    "mergeable": false,
                    "no_features": false
                },
                {
                    "proj": "BP_Bend",
                    "spec": "/pa/terrain/lava/brushes/lava_t2_small_2_ramp.json",
                    "height": 398.76031494140625,
                    "op": "BO_Add",
                    "position": [
                        122.414794921875,
                        -371.2059326171875,
                        78.93399047851562
                    ],
                    "transform": [
                        0.9213306307792664,
                        0.23855404555797577,
                        0.3069884181022644,
                        122.414794921875,
                        0.23855404555797577,
                        0.2766178250312805,
                        -0.9308999180793762,
                        -371.2059326171875,
                        -0.3069884181022644,
                        0.9308999180793762,
                        0.19794845581054688,
                        78.93399047851562
                    ],
                    "scale": [
                        1,
                        1,
                        1
                    ],
                    "rotation": 0,
                    "weight": [
                        0,
                        0,
                        0,
                        0
                    ],
                    "weightHard": false,
                    "weightScale": [
                        1,
                        1,
                        1
                    ],
                    "mirrored": false,
                    "twinId": 0,
                    "pathable": true,
                    "flooded": false,
                    "mergeable": false,
                    "no_features": false
                },
                {
                    "proj": "BP_Bend",
                    "spec": "/pa/terrain/lava/brushes/lava_t2_small_2_ramp.json",
                    "height": 398.7320251464844,
                    "op": "BO_Add",
                    "position": [
                        244.8074951171875,
                        253.57049560546875,
                        -186.4364013671875
                    ],
                    "transform": [
                        0.7101176381111145,
                        -0.34464460611343384,
                        0.6139649152755737,
                        244.80747985839844,
                        -0.7036536335945129,
                        -0.31693702936172485,
                        0.6359421014785767,
                        253.5704803466797,
                        -0.024585843086242676,
                        -0.883612334728241,
                        -0.46757304668426514,
                        -186.43634033203125
                    ],
                    "scale": [
                        1,
                        1,
                        1
                    ],
                    "rotation": -0.7399998307228088,
                    "weight": [
                        0,
                        0,
                        0,
                        0
                    ],
                    "weightHard": false,
                    "weightScale": [
                        1,
                        1,
                        1
                    ],
                    "mirrored": false,
                    "twinId": 0,
                    "pathable": true,
                    "flooded": false,
                    "mergeable": false,
                    "no_features": false
                },
                {
                    "proj": "BP_Bend",
                    "spec": "/pa/terrain/moon/brushes/moon_crater_02.json",
                    "height": 400.03094482421875,
                    "op": "BO_Subtract",
                    "position": [
                        -267.28057861328125,
                        -243.5440673828125,
                        171.091064453125
                    ],
                    "transform": [
                        1.3333830833435059,
                        -0.5527440905570984,
                        -2.258344888687134,
                        -267.2806091308594,
                        -0.5527440905570984,
                        1.4363428354263306,
                        -2.0577871799468994,
                        -243.5441131591797,
                        1.2962100505828857,
                        1.1810970306396484,
                        1.445605993270874,
                        171.0909881591797
                    ],
                    "scale": [
                        1.9399991035461426,
                        1.9399991035461426,
                        3.379997730255127
                    ],
                    "rotation": 0,
                    "weight": [
                        0,
                        0,
                        0,
                        0
                    ],
                    "weightHard": false,
                    "weightScale": [
                        1,
                        1,
                        1
                    ],
                    "mirrored": false,
                    "twinId": 0,
                    "pathable": true,
                    "flooded": false,
                    "mergeable": true,
                    "no_features": false
                },
                {
                    "proj": "BP_Bend",
                    "spec": "/pa/terrain/moon/brushes/moon_crater_02.json",
                    "height": 399.6279602050781,
                    "op": "BO_Subtract",
                    "position": [
                        366.2255859375,
                        -125.22085571289062,
                        -99.50399780273438
                    ],
                    "transform": [
                        -0.22941486537456512,
                        0.741771936416626,
                        3.0974855422973633,
                        366.22564697265625,
                        0.741771936416626,
                        1.6863704919815063,
                        -1.0591007471084595,
                        -125.22087097167969,
                        -1.777847170829773,
                        0.6078863143920898,
                        -0.8415910601615906,
                        -99.5040054321289
                    ],
                    "scale": [
                        1.9399991035461426,
                        1.9399991035461426,
                        3.379997730255127
                    ],
                    "rotation": 0,
                    "weight": [
                        0,
                        0,
                        0,
                        0
                    ],
                    "weightHard": false,
                    "weightScale": [
                        1,
                        1,
                        1
                    ],
                    "mirrored": false,
                    "twinId": 0,
                    "pathable": true,
                    "flooded": false,
                    "mergeable": true,
                    "no_features": false
                },
                {
                    "proj": "BP_Bend",
                    "spec": "/pa/terrain/moon/brushes/moon_crater_02.json",
                    "height": 399.7157287597656,
                    "op": "BO_Subtract",
                    "position": [
                        -157.36798095703125,
                        349.4638671875,
                        -113.50323486328125
                    ],
                    "transform": [
                        1.5200520753860474,
                        0.9325676560401917,
                        -1.3307042121887207,
                        -157.36798095703125,
                        0.9325676560401917,
                        -0.13093489408493042,
                        2.9550678730010986,
                        349.4638977050781,
                        0.7637771368026733,
                        -1.6961044073104858,
                        -0.959783673286438,
                        -113.50322723388672
                    ],
                    "scale": [
                        1.9399991035461426,
                        1.9399991035461426,
                        3.379997730255127
                    ],
                    "rotation": 0,
                    "weight": [
                        0,
                        0,
                        0,
                        0
                    ],
                    "weightHard": false,
                    "weightScale": [
                        1,
                        1,
                        1
                    ],
                    "mirrored": false,
                    "twinId": 0,
                    "pathable": true,
                    "flooded": false,
                    "mergeable": true,
                    "no_features": false
                },
                {
                    "proj": "BP_Bend",
                    "spec": "/pa/terrain/lava/brushes/lava_volcano_04.json",
                    "height": 401.2999267578125,
                    "op": "BO_Add",
                    "position": [
                        -171.17059326171875,
                        -173.27374267578125,
                        -318.933349609375
                    ],
                    "transform": [
                        0.2828211486339569,
                        -2.2342965602874756,
                        -1.0620843172073364,
                        -171.17051696777344,
                        -2.2342965602874756,
                        0.22824935615062714,
                        -1.075134038925171,
                        -173.27366638183594,
                        1.0620843172073364,
                        1.075134038925171,
                        -1.9789280891418457,
                        -318.9333801269531
                    ],
                    "scale": [
                        2.4899985790252686,
                        2.4899985790252686,
                        2.4899985790252686
                    ],
                    "rotation": 0,
                    "weight": [
                        0,
                        0,
                        0,
                        0
                    ],
                    "weightHard": false,
                    "weightScale": [
                        1,
                        1,
                        1
                    ],
                    "mirrored": false,
                    "twinId": 0,
                    "pathable": false,
                    "flooded": false,
                    "mergeable": false,
                    "no_features": false
                },
                {
                    "proj": "BP_Bend",
                    "spec": "/pa/terrain/lava/brushes/lava_volcano_04.json",
                    "height": 396.6564025878906,
                    "op": "BO_Add",
                    "position": [
                        141.4658203125,
                        140.9486083984375,
                        342.7203369140625
                    ],
                    "transform": [
                        2.320087432861328,
                        -0.1692899465560913,
                        0.888047456741333,
                        141.4658203125,
                        -0.1692899465560913,
                        2.3213276863098145,
                        0.8848006129264832,
                        140.9486083984375,
                        -0.888047456741333,
                        -0.8848006129264832,
                        2.151416301727295,
                        342.7203063964844
                    ],
                    "scale": [
                        2.4899985790252686,
                        2.4899985790252686,
                        2.4899985790252686
                    ],
                    "rotation": 0,
                    "weight": [
                        0,
                        0,
                        0,
                        0
                    ],
                    "weightHard": false,
                    "weightScale": [
                        1,
                        1,
                        1
                    ],
                    "mirrored": false,
                    "twinId": 0,
                    "pathable": false,
                    "flooded": false,
                    "mergeable": false,
                    "no_features": false
                },
                {
                    "proj": "BP_Bend",
                    "spec": "/pa/terrain/lava/brushes/lava_plateau_07.json",
                    "height": 396.6444091796875,
                    "op": "BO_Add",
                    "position": [
                        362.0333251953125,
                        144.396728515625,
                        73.54065704345703
                    ],
                    "transform": [
                        0.4162617027759552,
                        -0.46080753207206726,
                        8.762333869934082,
                        362.0333251953125,
                        -0.3168157935142517,
                        1.3797937631607056,
                        3.4948508739471436,
                        144.39674377441406,
                        -1.427148461341858,
                        -0.44070887565612793,
                        1.7799131870269775,
                        73.54066467285156
                    ],
                    "scale": [
                        1.5199995040893555,
                        1.5199995040893555,
                        9.600029945373535
                    ],
                    "rotation": 0.07999999821186066,
                    "weight": [
                        0,
                        0,
                        0,
                        0
                    ],
                    "weightHard": false,
                    "weightScale": [
                        1,
                        1,
                        1
                    ],
                    "mirrored": false,
                    "twinId": 0,
                    "pathable": false,
                    "flooded": false,
                    "mergeable": false,
                    "no_features": false
                },
                {
                    "proj": "BP_Bend",
                    "spec": "/pa/terrain/lava/brushes/lava_plateau_07.json",
                    "height": 399.9808654785156,
                    "op": "BO_Add",
                    "position": [
                        -31.396514892578125,
                        -209.51937866210938,
                        339.2647705078125
                    ],
                    "transform": [
                        -0.5717336535453796,
                        1.4033116102218628,
                        -0.7535547614097595,
                        -31.396514892578125,
                        -1.1740179061889648,
                        -0.5460109114646912,
                        -5.028721332550049,
                        -209.51937866210938,
                        -0.7779467701911926,
                        -0.20733296871185303,
                        8.142768859863281,
                        339.2647705078125
                    ],
                    "scale": [
                        1.5199995040893555,
                        1.5199995040893555,
                        9.600029945373535
                    ],
                    "rotation": -1.9799987077713013,
                    "weight": [
                        0,
                        0,
                        0,
                        0
                    ],
                    "weightHard": false,
                    "weightScale": [
                        1,
                        1,
                        1
                    ],
                    "mirrored": false,
                    "twinId": 0,
                    "pathable": false,
                    "flooded": false,
                    "mergeable": false,
                    "no_features": false
                },
                {
                    "proj": "BP_Bend",
                    "spec": "/pa/terrain/lava/brushes/lava_plateau_07.json",
                    "height": 397.416748046875,
                    "op": "BO_Add",
                    "position": [
                        -206.90350341796875,
                        287.7874755859375,
                        179.74813842773438
                    ],
                    "transform": [
                        -0.9665926098823547,
                        -0.8659517765045166,
                        -4.997977256774902,
                        -206.90350341796875,
                        0.03738492727279663,
                        -1.0475969314575195,
                        6.951817035675049,
                        287.7875061035156,
                        -1.1724759340286255,
                        0.680490255355835,
                        4.3420090675354,
                        179.7480926513672
                    ],
                    "scale": [
                        1.5199995040893555,
                        1.5199995040893555,
                        9.600029945373535
                    ],
                    "rotation": 2.7199981212615967,
                    "weight": [
                        0,
                        0,
                        0,
                        0
                    ],
                    "weightHard": false,
                    "weightScale": [
                        1,
                        1,
                        1
                    ],
                    "mirrored": false,
                    "twinId": 0,
                    "pathable": false,
                    "flooded": false,
                    "mergeable": false,
                    "no_features": false
                },
                {
                    "proj": "BP_Bend",
                    "spec": "/pa/terrain/mountain/brushes/mountain_mountain_07.json",
                    "height": 400.5199279785156,
                    "op": "BO_Add",
                    "position": [
                        -292.8209228515625,
                        -260.9837951660156,
                        -80.9913330078125
                    ],
                    "transform": [
                        -0.6294399499893188,
                        -2.6274361610412598,
                        -2.8951618671417236,
                        -292.8209228515625,
                        -0.4972097873687744,
                        2.962428092956543,
                        -2.58038330078125,
                        -260.9837646484375,
                        3.8779070377349854,
                        -0.04664015769958496,
                        -0.8007725477218628,
                        -80.9913101196289
                    ],
                    "scale": [
                        3.9599971771240234,
                        3.9599971771240234,
                        3.9599971771240234
                    ],
                    "rotation": 0.7399998307228088,
                    "weight": [
                        0,
                        0,
                        0,
                        0
                    ],
                    "weightHard": false,
                    "weightScale": [
                        1,
                        1,
                        1
                    ],
                    "mirrored": false,
                    "twinId": 0,
                    "pathable": false,
                    "flooded": false,
                    "mergeable": false,
                    "no_features": true
                },
                {
                    "proj": "BP_Bend",
                    "spec": "/pa/terrain/mountain/brushes/mountain_mountain_07.json",
                    "height": 399.5340270996094,
                    "op": "BO_Add",
                    "position": [
                        -224.77264404296875,
                        168.1826171875,
                        -284.287353515625
                    ],
                    "transform": [
                        0.33367785811424255,
                        3.256831407546997,
                        -2.2278432846069336,
                        -224.77268981933594,
                        3.5061089992523193,
                        0.7810624837875366,
                        1.6669487953186035,
                        168.18263244628906,
                        1.8103688955307007,
                        -2.11295223236084,
                        -2.81772518157959,
                        -284.287353515625
                    ],
                    "scale": [
                        3.9599971771240234,
                        3.9599971771240234,
                        3.9599971771240234
                    ],
                    "rotation": 0.21999996900558472,
                    "weight": [
                        0,
                        0,
                        0,
                        0
                    ],
                    "weightHard": false,
                    "weightScale": [
                        1,
                        1,
                        1
                    ],
                    "mirrored": false,
                    "twinId": 0,
                    "pathable": false,
                    "flooded": false,
                    "mergeable": false,
                    "no_features": true
                },
                {
                    "proj": "BP_Bend",
                    "spec": "/pa/terrain/mountain/brushes/mountain_mountain_07.json",
                    "height": 399.2908935546875,
                    "op": "BO_Add",
                    "position": [
                        198.7496337890625,
                        -197.40475463867188,
                        -284.540283203125
                    ],
                    "transform": [
                        3.292283535003662,
                        -0.9783438444137573,
                        1.9711142778396606,
                        198.74964904785156,
                        0.1502172350883484,
                        -3.438913345336914,
                        -1.9577763080596924,
                        -197.40476989746094,
                        2.1954233646392822,
                        1.702438235282898,
                        -2.8219504356384277,
                        -284.5404052734375
                    ],
                    "scale": [
                        3.9599971771240234,
                        3.9599971771240234,
                        3.9599971771240234
                    ],
                    "rotation": 1.6999989748001099,
                    "weight": [
                        0,
                        0,
                        0,
                        0
                    ],
                    "weightHard": false,
                    "weightScale": [
                        1,
                        1,
                        1
                    ],
                    "mirrored": false,
                    "twinId": 0,
                    "pathable": false,
                    "flooded": false,
                    "mergeable": false,
                    "no_features": true
                },
                {
                    "proj": "BP_Bend",
                    "spec": "/pa/terrain/jungle/brushes/jungle_plateau_01.json",
                    "height": 399.7746887207031,
                    "op": "BO_Add",
                    "position": [
                        -296.44647216796875,
                        -53.375816345214844,
                        262.85040283203125
                    ],
                    "transform": [
                        3.0605881214141846,
                        -0.27357274293899536,
                        -3.3962228298187256,
                        -296.4465026855469,
                        -0.27357274293899536,
                        4.5307393074035645,
                        -0.6114971041679382,
                        -53.375816345214844,
                        3.3962228298187256,
                        0.6114971041679382,
                        3.0113306045532227,
                        262.8503723144531
                    ],
                    "scale": [
                        4.579996585845947,
                        4.579996585845947,
                        4.579996585845947
                    ],
                    "rotation": 0,
                    "weight": [
                        0,
                        0,
                        0,
                        0
                    ],
                    "weightHard": false,
                    "weightScale": [
                        1,
                        1,
                        1
                    ],
                    "mirrored": false,
                    "twinId": 0,
                    "pathable": false,
                    "flooded": false,
                    "mergeable": false,
                    "no_features": false
                },
                {
                    "proj": "BP_Bend",
                    "spec": "/pa/terrain/jungle/brushes/jungle_plateau_01.json",
                    "height": 399.1902160644531,
                    "op": "BO_Add",
                    "position": [
                        299.91009521484375,
                        -225.94482421875,
                        135.48321533203125
                    ],
                    "transform": [
                        2.3154783248901367,
                        -1.94291090965271,
                        3.4409339427948,
                        299.9100646972656,
                        3.7746121883392334,
                        -0.09261846542358398,
                        -2.5923140048980713,
                        -225.94479370117188,
                        1.1692866086959839,
                        4.146430492401123,
                        1.5544286966323853,
                        135.4832305908203
                    ],
                    "scale": [
                        4.579996585845947,
                        4.579996585845947,
                        4.579996585845947
                    ],
                    "rotation": 1.199999451637268,
                    "weight": [
                        0,
                        0,
                        0,
                        0
                    ],
                    "weightHard": false,
                    "weightScale": [
                        1,
                        1,
                        1
                    ],
                    "mirrored": false,
                    "twinId": 0,
                    "pathable": false,
                    "flooded": false,
                    "mergeable": false,
                    "no_features": false
                },
                {
                    "proj": "BP_Bend",
                    "spec": "/pa/terrain/jungle/brushes/jungle_plateau_01.json",
                    "height": 397.131103515625,
                    "op": "BO_Add",
                    "position": [
                        70.05314636230469,
                        389.8916015625,
                        -28.110763549804688
                    ],
                    "transform": [
                        -1.4125933647155762,
                        4.281149864196777,
                        0.8079023957252502,
                        70.05314636230469,
                        0.5652650594711304,
                        -0.6620295643806458,
                        4.4965057373046875,
                        389.8916015625,
                        4.319887161254883,
                        1.4865543842315674,
                        -0.3241936266422272,
                        -28.110801696777344
                    ],
                    "scale": [
                        4.579996585845947,
                        4.579996585845947,
                        4.579996585845947
                    ],
                    "rotation": -2.079998731613159,
                    "weight": [
                        0,
                        0,
                        0,
                        0
                    ],
                    "weightHard": false,
                    "weightScale": [
                        1,
                        1,
                        1
                    ],
                    "mirrored": false,
                    "twinId": 0,
                    "pathable": false,
                    "flooded": false,
                    "mergeable": false,
                    "no_features": false
                }
            ],
            "metal_spots": [
                [
                    -256.0612487792969,
                    -202.11611938476562,
                    176.5168914794922
                ],
                [
                    -245.72146606445312,
                    -236.37811279296875,
                    141.88894653320312
                ],
                [
                    -379.2615966796875,
                    142.03842163085938,
                    97.72183990478516
                ],
                [
                    -390.80621337890625,
                    128.42153930664062,
                    67.88188171386719
                ],
                [
                    -399.79254150390625,
                    40.81349182128906,
                    115.28238677978516
                ],
                [
                    -389.41790771484375,
                    54.67161560058594,
                    141.4303436279297
                ],
                [
                    -136.12841796875,
                    317.82574462890625,
                    -132.28155517578125
                ],
                [
                    -165.19802856445312,
                    317.11944580078125,
                    -92.29383850097656
                ],
                [
                    217.90731811523438,
                    304.9832763671875,
                    -187.13250732421875
                ],
                [
                    213.21896362304688,
                    286.77532958984375,
                    -218.93878173828125
                ],
                [
                    283.1159973144531,
                    231.31573486328125,
                    -203.984130859375
                ],
                [
                    290.9163513183594,
                    247.29571533203125,
                    -171.10948181152344
                ],
                [
                    343.2359619140625,
                    -123.54876708984375,
                    -59.95558166503906
                ],
                [
                    350.7691650390625,
                    -87.89723205566406,
                    -83.71346282958984
                ],
                [
                    334.778564453125,
                    -106.63580322265625,
                    -126.03368377685547
                ],
                [
                    326.948486328125,
                    -141.2140655517578,
                    -99.77191925048828
                ],
                [
                    172.00677490234375,
                    -373.23687744140625,
                    79.2445068359375
                ],
                [
                    157.6278533935547,
                    -385.0965576171875,
                    46.32820129394531
                ],
                [
                    74.46749877929688,
                    -401.749755859375,
                    92.93101501464844
                ],
                [
                    93.60360717773438,
                    -389.82470703125,
                    121.1329345703125
                ],
                [
                    42.405242919921875,
                    -318.1939697265625,
                    -238.6707763671875
                ],
                [
                    85.85079956054688,
                    -310.0758056640625,
                    -236.3153076171875
                ],
                [
                    -196.82058715820312,
                    -321.0531005859375,
                    -138.10244750976562
                ],
                [
                    -159.291015625,
                    -325.42926025390625,
                    -172.39572143554688
                ],
                [
                    -342.4766845703125,
                    -123.57986450195312,
                    -168.2197265625
                ],
                [
                    -335.18084716796875,
                    -97.77534484863281,
                    -198.28759765625
                ],
                [
                    -309.22894287109375,
                    31.9996337890625,
                    -251.37457275390625
                ],
                [
                    -295.68133544921875,
                    67.9163818359375,
                    -259.49359130859375
                ],
                [
                    -109.43255615234375,
                    96.1505126953125,
                    -372.69189453125
                ],
                [
                    -91.709228515625,
                    58.36799621582031,
                    -385.7469482421875
                ],
                [
                    73.1600112915039,
                    -110.72390747070312,
                    -379.269775390625
                ],
                [
                    104.53314208984375,
                    -126.88005065917969,
                    -366.1119384765625
                ],
                [
                    -165.42112731933594,
                    255.94927978515625,
                    253.9134521484375
                ],
                [
                    -139.1161651611328,
                    289.05535888671875,
                    232.996337890625
                ],
                [
                    322.83087158203125,
                    169.632568359375,
                    152.5960693359375
                ],
                [
                    339.12347412109375,
                    127.50128173828125,
                    159.24969482421875
                ],
                [
                    -6.2275390625,
                    -135.81353759765625,
                    376.44775390625
                ],
                [
                    41.881134033203125,
                    -150.3504638671875,
                    368.8426513671875
                ],
                [
                    274.6126708984375,
                    -160.90109252929688,
                    239.5650634765625
                ],
                [
                    304.50018310546875,
                    -133.35406494140625,
                    218.79278564453125
                ],
                [
                    114.82650756835938,
                    367.9619140625,
                    91.48037719726562
                ],
                [
                    65.1568603515625,
                    377.722412109375,
                    99.23966979980469
                ],
                [
                    -210.0836181640625,
                    -3.4326982498168945,
                    339.322021484375
                ],
                [
                    -230.835205078125,
                    40.73764419555664,
                    322.451171875
                ],
                [
                    -170.2357177734375,
                    305.6300048828125,
                    -122.4027099609375
                ],
                [
                    -132.270751953125,
                    329.83648681640625,
                    -98.78778076171875
                ],
                [
                    -232.20867919921875,
                    -230.7132568359375,
                    172.53005981445312
                ],
                [
                    27.026397705078125,
                    -382.4404296875,
                    -117.0772933959961
                ],
                [
                    123.41522216796875,
                    91.19610595703125,
                    -370.8065185546875
                ],
                [
                    -377.5343017578125,
                    33.24156188964844,
                    -128.79339599609375
                ],
                [
                    -77.74762725830078,
                    -345.704833984375,
                    185.1419677734375
                ],
                [
                    -313.699462890625,
                    246.94757080078125,
                    -23.385536193847656
                ],
                [
                    357.80084228515625,
                    74.69708251953125,
                    -160.009033203125
                ],
                [
                    57.786598205566406,
                    343.4886474609375,
                    -194.5731201171875
                ],
                [
                    -366.1087646484375,
                    -93.86605834960938,
                    130.4877166748047
                ],
                [
                    282.600830078125,
                    -282.26129150390625,
                    -12.06494140625
                ],
                [
                    -269.03082275390625,
                    -207.06048583984375,
                    147.36764526367188
                ]
            ],
            "landing_zones": {
                "list": [
                    [
                        131.29452514648438,
                        -388.8751220703125,
                        82.9423828125
                    ],
                    [
                        254.28521728515625,
                        268.0252685546875,
                        -197.17843627929688
                    ],
                    [
                        -391.5311279296875,
                        95.31829833984375,
                        107.47848510742188
                    ]
                ],
                "rules": [
                    {
                        "min": 3,
                        "max": 10
                    },
                    {
                        "min": 6,
                        "max": 10
                    },
                    {
